digraph Tree {
node [shape=box, style="filled, rounded", color="black", fontname="helvetica"] ;
edge [fontname="helvetica"] ;
0 [label="Temperature <= 37.95\ngini = 0.486\nsamples = 120\nvalue = [70, 50]\nclass = False", fillcolor="#f8dbc6"] ;
1 [label="gini = 0.0\nsamples = 60\nvalue = [60, 0]\nclass = False", fillcolor="#e58139"] ;
0 -> 1 [labeldistance=2.5, labelangle=45, headlabel="True"] ;
2 [label="LumbarPain <= 0.5\ngini = 0.278\nsamples = 60\nvalue = [10, 50]\nclass = True", fillcolor="#61b1ea"] ;
0 -> 2 [labeldistance=2.5, labelangle=-45, headlabel="False"] ;
3 [label="gini = 0.0\nsamples = 10\nvalue = [10, 0]\nclass = False", fillcolor="#e58139"] ;
2 -> 3 ;
4 [label="gini = 0.0\nsamples = 50\nvalue = [0, 50]\nclass = True", fillcolor="#399de5"] ;
2 -> 4 ;
}